84.0 %correct
-1.9185130302615625, -7.0379988525425725, -1.3446312386837382, -2.681205549667546, 1.918513030261562, 7.037998852542606, 1.3446312386837387, 2.6812055496675473, 1.2507627157330263, 2.1499427805681663, 2.7431783933422818, -6.632090142446976, -0.061121225012683605, -0.3739071006402943, 5.38740732093088, 0.8985788031952364, 1.0909212308686675, 1.4989713119383423, -33.81080423173695, -6.882394590094524, 2.725903991803769, -2.8221247662088844, 3.0590680672582824, -2.1778501884414085, 7.901778403558631, -5.255383137393665, -3.954960973686766, 1.1334215657578783, 4.918548782172967, -0.15094973280862503, -1.850055293028588, -6.542948430714852, 3.50334832050517, 1.3391608059568405, -6.294353502954854, 11.270141714191213, 6.202262065387046, 1.1161728216948836, -0.22045609604732871, 0.9469826577003047, -12.480764976550226, 7.320902844584481, -4.96394565330482, -1.2146047969295581, 8.252262655511544, 0.34168470328777684, 2.26947862804455, 7.1512535933955, -1.759401166684258, -0.9560188109387526, -8.601369379931867, -4.255543188566784, -39.872327332658934, 6.87990972002189, -20.115537503418658, -0.6607363621241734, 0.8956640859094792, 0.03478087641501423, -5.598991034823799, -4.611088408713316, 11.138400530765123, -3.2139111569013847, -0.25390909724162114, -0.1704008678938591, -1.6061608340963636, -23.57221829582182, -7.026995773381912, 7.826420138492887, 6.733588853764848, -3.491552062093149, -2.4213493047227894, 0.8007358627307182, 0.2795570402947749, 1.1760710009762656, -0.8824727287186869, -0.3828535535953363, -0.17987249099640126, 0.30886540313872335, -4.947029402408079, -2.408230084573275, 2.8671555104436757, 4.670408851122465, 2.0981700364032063, -1.123624571425119, -0.17408880340381705, -3.8920731328796383, -0.28434685096986967, -7.4778851594787605, 1.8836767906273284, 5.101128620099431, 6.93406577555635, -2.8862470736379633, -1.3710003054914317, -2.616108787269171, -3.6209568794045146, -0.8615724736967559, 4.801006816300717, 3.7409902869519773, -3.3857299890742563, -22.880729181099046, -23.784304692263174, -5.190124589389584, -7.74857419421105, 2.9438601917570035, 13.334062643294033, -5.283261174234307, -17.58481052365551, 6.6838333724837495, -3.547398975646683, 5.005178571157442, 0.42261524219680285, 11.04872664442273, -4.317335556285399, -3.8532065301538228, 5.599929495406669, -8.08425956760338, 0.007949981691927463, 3.322612765226317, 2.774024493890047, -2.6351769829881873, -15.527377096868312, -1.7273701797480134, 8.822508332845835, -1.962835808589027, -1.7200808785239106, -1.7942525001561096, 3.286763252459679, 9.668143055412344, 5.625470501629976, 9.094737279066077, -1.4145810394043548, 1.3605539160764442, -9.524005223304629, 0.3638787631893084, -7.952060441534815, 3.8514328394328405, 4.415649351964169, 2.4545483469208818, 2.242765581136497, -7.421912416396035, -8.025011561380854, 3.930411643348844, -6.220296491781803, 1.8766187300620683, 6.557195482767576, -9.008315720633945, -30.119233292974116, 5.478159574078905, -16.365619808480407, -33.3280886648417, 0.14670691647625894, -11.077372121217387, 8.777234383132841, -4.415929153238136, -2.8480253406191838, 9.70574242117396, 1.0928102501396675, 0.9129281355378926, -0.8353086716277722, -26.94483624935545, -10.982093155017047, 1.5271562076087815, 11.29619904748644, 6.4933861427822945, 5.243214301156829, -0.6421421006939066, -3.061222378396373, 1.3005308800966242, -1.341925680061896, 10.149907960945322, -1.511583688870675, -12.07051853110004, -2.6711374376750996, 0.12507857655820143, -1.3079412336478518, 0.6992168045080087, 9.841651351283357, -2.822038250655772, 5.287780069729285, 1.1642943106377128, 0.62350044232413, -7.674320746793248, 2.142970468972987, -1.1483554722008271, -4.6100918731362315, 12.038343550902958, 7.165061447323315, 0.9749902584666236, -8.578647303581203, 9.677149405605459, -1.1779858094655626, 5.0766325816745335, -6.502510983501388, -22.734967625634177, -20.357549794664717, -11.415835601590201, 
