84.13284132841328
-1.2224403991868553, -7.2014917446851285, -0.36313034883018247, 1.4035929395812734, -6.845873093624024, -1.0163867431532778, 2.4260866992741996, 0.6432208306253963, 1.9503102170173658, 2.4132430501155686, -5.577189239184603, 1.9542552480291644, -3.8606124099970405, 0.6272181029281569, 1.8492748405334136, -1.3578463205306, 4.303501992826095, -3.867331764936238, -7.589593303114449, -2.5791637585328573, -5.330196097335003, -1.0220728252036357, 2.7929201715449072, 1.5233812755121579, 0.046434218680121916, -5.599224650605898, -3.045712019039314, -2.5565899006298003, 6.273501341786366, -2.9407997167031987, 6.866002543800449, -0.9508809617437393, -0.3683880986240563, 1.5710895202854565, -0.7997239759310254, -4.804862425744631, -2.4966372884685377, -8.25633663872804, -3.1744218930364707, 3.1525400160199855, -2.4144110493062003, -6.965822282670494, -6.1179120447207165, -3.053334357523257, 3.6134608271107322, -0.33188261094187693, 4.77336956199387, 1.1719479194674236, 6.303967821866197, -3.706230806635012, 0.2155439566721296, 1.755293372503873, -1.1569872886413042, -7.7539384356474885, 1.1111861435346035, -3.965556967215374, -6.488545562423499, 3.9005281283375264, -0.7013991910980998, 2.6076934054925864, 0.5929493410085491, 1.386998858535008, 3.3251462467078796, -6.125838263588375, -5.141849804928325, -3.3833693521647423, 2.9952677639495264, 0.126044731873188, 0.14843605205004476, -4.077600701259554, 2.020409794097953, 1.2216270459776528, -5.094393681838035, -1.6777222379237426, 1.0653071738182627, 3.6970041617851774, -7.271007433466299, -4.708314240941523, 1.9048356795132637, -3.6332684991571376, 0.13448661183912047, -0.9680432707994504, 2.74501356982785, 4.355296075196348, -7.5928690934926095, 3.1903114828238697, -1.6429971138142017, -0.4673355261478426, -5.194524022539852, -4.455543000296711, -7.155014676873203, -4.282139428871125, -1.2522919422521273, 3.905559067368013, 0.6851429791619553, 1.8459376622057715, -5.957195477845904, 3.2914922335118537, -3.8121849726095536, 6.5089631678209905, 0.18055845021838246, 0.3272055721075612, 0.22139078493047243, 0.5667209135270912, 0.5664695439131516, 0.35699406206588513, -0.25556282428448723, 0.6909104974082181, -0.024144062875540856, -0.2263973381766736, 0.7348253988121913, 0.35738221638606393, 0.6859894115931606, 1.0195595973792169, 0.31350486702874175, 0.3013372403421879, 0.5143782884244011, 0.2780901071816914, -0.37363303648758256, 0.81396046812063, 0.2437842121197534, 0.0019072601670520712, 0.4492787709878585, -0.24408768957611163, 0.2556772704874795, 0.2747405103873701, -0.19854197269945642, 0.32508304124599713, 0.7229599190862139, -0.6346891488474241, 0.09109419319236498, -0.17936296604285717, -0.13648451658153327, -0.26637794342575555, -0.09630593930165365, -0.011418271603853752, 0.22728644434846215, -0.08008041707501036, 0.0644088222109263, 0.3407359602251989, 0.029617758323613592, 0.36354888007679304, 0.27438055696832914, 0.12128115884977983, -0.18289253416935122, 0.1888974073057182, -0.612393109189409, 0.20448164148976444, -0.33809845368051955, -0.2274431183176915, -0.04804642170359315, 0.2547321306780725, 0.35202650371783684, -0.45453314975209874, -0.3256793905076552, -0.029533111540353915, -0.05282100780960948, -0.09048204439701805, -0.5414948047304903, -0.406323694330327, -0.2198333041502687, -0.5450586448316809, 0.08814642839284846, -0.39114723785750466, -0.608033766833996, -0.08760138867373633, -0.11410720922203141, -0.12940517009524452, 0.37407973176698067, -0.18147074504572575, -0.45454159660716675, -0.49771580059018716, -0.11666714876400795, -0.7048054656110725, -0.42081670906390195, -0.5914174869702506, 0.5254049450822629, -0.05134537432363167, -0.6620200330683936, -0.4195319898588214, -0.5094952204099041, 0.1847570484349906, -0.3735162229045686, 0.7809728214685344, -0.3293870679621333, -0.3631900369568701, 0.2155175504194596, -0.14109807587931242, 0.07551558342673188, -0.12270244964346043, -0.5434388434699231, -0.5847618739364645, -1.2025123680991614, -0.34346508156670774, -0.795992980907316, 0.07453940302576743, 0.03527692743405577, -0.05092577543932841, -0.1928926347589336, -0.03926292715411971, 0.5185821730203136, 0.2919329789708925, -0.26309116832602764, 0.24700874425187747, 0.28157831830556773, 0.18000439048954672, 0.0048295624699712806, 0.1980124082388718, 0.03452159835688183, -0.3754656203450479, -0.28005277672982676, 0.5191895875085244, 0.4171577636279221, -0.07820269987145119, -0.4080310638959902, 0.47072682694625595, 0.09152260155006882, 0.05095495490966225, 0.22485211312053743, -0.3531640413914392, 0.023755268201151987, 0.18709745439078718, -0.31475449066393874, -0.49682520146126136, -0.20061013078622753, -0.30847995463134364, 0.2699477476564456, 0.8573999492473215, 0.4059100477739175, 0.5660555317434875, 0.11688909382609522, -0.656748848606809, 0.2913971049727826, 0.2063792080978598, -0.11597808346359763, 0.03149913306246382, 0.19996475386632892, 0.14768117768608569, 0.1821591356436539, 0.5096531105622771, 0.15955465638506677, 0.011555946585732571, 0.810721086455112, 0.7213538117663344, -0.3663862406308573, 0.5458864562567004, 0.28860097692315645, 0.165803500802342, -0.06526218077629795, -0.06089098132015752, -0.2805511441048499, 0.23239191357428882, 0.26882227130669123, -0.05669343221392643, 0.12608096641449937, 0.7974469863253865, 0.5231659690306757, 0.03296288528198948, 1.04329213105916, 0.6130215783852584, 0.07276645969837503, -0.3986104605986129, -0.018174790813832185, 0.01056822939700947, -0.4596612631861839, -0.1384889600687489, -0.3176414972234313, -0.14987903492931076, -0.2205388230626625, 0.038591757039139654, 0.20489611196725482, 0.7709175889613901, 1.0127627793284675, 0.5448934332181083, 0.9692903948223692, 0.34850516573735685, -0.12397481643782786, -0.16628112433804165, -0.1658422928882274, 0.20404726691294622, 0.017779279303217706, -0.11652603198127669, -0.319297026997514, 0.2543646801345099, -0.16508300802592635, 0.04079291680049441, 1.0500582078434026, 0.7109736787573979, 0.1709645218978606, 0.48712968952730173, 0.4129169119036864, 0.2911127085169607, 0.4855753759380712, -0.12368857295621653, 0.012874570386414756, 0.511602207090493, 0.15282726247656536, 0.09947663323612146, -0.5478804935515212, 0.19224492042985367, 0.28667120440120814, 0.2507779867390726, 0.19362511399628543, -0.08577933575256827, -0.6933015560121714, -0.04779509999452562, 0.013899381316088146, 0.07240888536460863, 0.00854220685534095, 0.31244465964393076, -0.09735508465441137, 0.2259778231104497, -0.7772516133758619, 0.5620638461200121, -0.2475270144613063, -0.19702232295580072, -0.3591818829726755, -0.33336460746040175, -0.9055537179100437, -0.6154019719843283, -0.06522556330200224, -0.10302499158674959, -0.4892192310206511, -0.3991294570710357, -0.45419196866546935, -0.19186002574859953, -0.18468716407351413, -0.07737553085620782, -0.074219791751494, 0.7324975578563561, -0.11946371175061489, 0.5265269356106571, 0.40427373144971557, -0.48133113272626266, -0.590904581525423, 0.12968313267294865, -0.33252806497230963, -0.33953325907309706, -0.7420622432078721, -0.6528630106218206, -0.37251808104345346, -0.6630883026690229, 0.35606400256912185, 0.1829730246366657, -0.20676344695858473, 0.06568180001516287, -0.3435642538820927, -0.1378856212646941, 0.30188213097230104, -0.024727691118205285, -0.6546506832635893, 0.10685993326395177, -0.2885019478212401, -0.5362848037111098, -0.7622507093700736, -0.6543933483852656, 0.16004531860136245, -0.376369849433516, -0.11357560105956092, -0.23560396604228515, 0.09819965865241827, 0.12674205643965278, -0.20605747434381966, 0.03512713866684185, 0.1382313560477428, 0.1297091771167738, 0.6298147861483548, 0.37167163862608793, -0.0875021208624703, 0.23090411230981037, 0.2227515208849103, 0.577537471149786, 0.02484124583013322, -0.19836455421859064, -0.45131102851073984, -0.08529536909423348, 0.22931824404303902, -0.028421139271366497, 0.03414374121138936, -0.3879408213697108, -0.12166242330246757, -0.04241923480723942, -0.059610394839263926, -0.14465983610054134, 0.17125818076777333, 0.1949885528812865, -0.129053254181013, 0.5139415700074327, 0.1961119574054033, -0.051291124769572406, -0.18097733003039976, -0.13580842397314186, 0.09687640954392608, 0.10548474858360962, -0.47592247404354815, -0.14075717978443594, 0.11279316286399736, 0.10187081845902067, -0.15181137517866228, -0.41232039106037094, 0.21486627733993924, 0.16720691440238983, -0.28768579473512573, -0.11355457016625738, -0.016932138287619716, 0.013662566525502653, -0.5091310524167897, 0.1709414204576463, 0.1954518738237073, -0.39118068244134624, -0.009698502682369894, 0.14506317872429472, -0.05591889299972931, -0.3254733424328469, 0.2831832267464693, -0.37597864229170896, -0.25769505105094276, 0.2429679200063414, -0.5002157538806492, -0.15217209627862097, 0.13073860265635653, -0.37572192632195534, -0.160197100529918, -0.12172795578303834, -0.1278198534384005, -0.10280775175849428, -0.07080997862817393, -0.08607722905486734, -0.49295615202204895, -0.06898814328884735, -0.10061150312509717, 0.19149081829582504, -0.036095475166464726, -0.6833808044349295, -0.7940574237477889, -0.5472409006924277, -0.2685706122390964, -0.3378228160978234, -0.503100594931925, -0.07441493954170757, -0.37758404969949244, -0.04041939817664774, -0.0792479804637168, 0.17708777968440992, -0.19725795305963909, 0.05745524247635546, -0.045929204616872756, 0.3536843775768925, 0.5766984073995466, -0.3514016375711942, -0.3852716346777484, -0.7553451597672486, -0.2602068309529332, -0.513868011616951, 0.137146954447299, -0.35240783647465146, -0.24419810606363643, -0.11434018378181064, 0.0697135859093714, -0.1190922285758362, -0.002341007884066419, 0.5473462041132059, 0.38609922291763055, 0.2669829956739218, 0.2643267388366576, 0.20818898681907816, -0.8929567593867178, -1.149240052209221, -0.33949005684799577, 0.09435491400926568, 0.07959629051824253, -0.21391857619980428, -0.09825784642010385, 0.042912817291913305, 0.6013490164360867, -0.09087053312131671, 0.062324003266783785, 0.26291215503333687, 0.17930739239365348, -0.14101678078337399, 0.23860427680873528, 0.06425527204494864, -0.07214823156866143, -0.6127642378275785, -0.21239073257741106, -0.6170459757920777, 0.11641201880056416, -0.3512594460045699, -0.2765058358663361, 0.28628122315216203, 0.2679333916631172, 0.26103599985425896, 0.3551509216908611, 0.4577137661765968, -0.17932034348504047, -0.36563148820488534, 0.08729394089972886, -0.2959443815330212, -0.4279398046110768, -0.6918625010044844, 0.06146742159736947, -0.4463905491866038, 0.09476217437258452, -0.009271042471755645, -0.09946324789656359, 0.2164541947365182, 0.2501063976966905, 0.2764406145104739, 0.3499315428647904, 0.1826422282535779, 0.09314345646587485, -0.35330100743021936, -0.014029919582286434, -0.0743135711824498, 0.1212452664671424, -0.5347737472143815, -0.2281401428865079, -0.8350594083778875, 0.11941190078240063, -0.4811102874696601, 0.050917905664186164, -0.21297324637618914, 0.056253578256198644, 0.21327649526024428, 0.053131081110586315, -0.35041481695444743, -0.4347581168923952, -0.06163026003964987, -0.5481640468804588, 0.06253435437055782, -0.18449063110652744, -0.232545098730296, -0.11605318543620276, 0.14940384388187478, 0.15697175660238513, 0.13790530548179789, -0.40695301945409257, -0.21720031660484876, 0.2131995107860542, 0.11070757391868412, -0.4397597021151718, -0.43588697736219484, -0.5248965850217412, -0.12813500862937915, -0.38639915432779043, -0.2732019791079693, -0.397449115767201, 0.12541654376767816, -0.5318825731171033, -0.033639752220406056, 0.20462604451881813, -0.20240445079749567, 0.02736122604186758, -0.14089668386299126, 0.3007565132062231, 0.45347456681142323, -0.5408069427219623, -0.25723080165440326, -0.5517617154453023, 0.16158550366651225, 0.25274348573503314, -0.16503812585808986, -0.16605750534983674, 0.04879972903750137, -0.2750532462883207, 0.11052763889787515, 0.40080462681613055, 0.2942468843340455, 0.3929912485672129, 0.274131765308442, 0.2649806848771804, -0.1762536923736147, -0.2172804667728058, 0.03246811367351433, 0.22577252736586217, -0.37080486462955264, -0.26519328146706317, 0.09134500463765029, 0.39263106755991245, 0.19988679003064155, -0.10264271632852012, 0.9141827924449337, 0.7157812627074561, 0.6693096930294808, 0.35048771750188756, 0.0843589902047266, 0.2927012985348566, -0.25172992084403095, -0.08582422612141473, 0.0805926241692371, 0.33142431315181137, -0.15590902681683935, -0.07977059930408503, 0.6050266595327262, 0.29786431116216294, 0.19375374819682084, 0.14237484615641582, 0.22370910260255703, 0.38189130772765795, 0.28321444409433116, 0.2124277703632973, 0.12592537041829943, 0.23404258319940635, 0.5496300823432618, 0.32710206659948643, 0.2478821630991042, 0.0877687646424699, -0.03886496321051067, -0.025266142139709527, -0.004597403361697215, 0.18122958683626694, -0.055090163319443525, 0.1706474994533321, 0.08253773244352497, 0.15649052205773958, -6.214779771256473E-4, 0.24260134998960853, 0.6403231753966584, -0.11352641374109278, 0.48268835835356405, 0.48323763734698716, 0.05024216450671211, -2.0110737112956982E-4, 0.7011512724363193, 0.3206729132710044, 0.22484495169062896, 0.3281792161633784, 0.10491551390805161, 0.42195027847864125, 0.2886701260101493, -0.05005526727392692, -0.15951599601957325, 0.13040677485828495, -0.2847322513049427, 0.2876726050481888, 0.4597821719530898, 0.28541674018861, 0.6722304562802088, 0.32579686999357343, 0.19415187897171352, -0.48598294922111873, -0.03699421745071872, -0.2949410784836226, -0.032834162329064505, -0.07461656045188436, -0.020118623160110087, -0.2586085425239965, 0.04600894238833286, 0.0443870057247763, -0.12325840360164314, -0.07638122215337921, -0.1982840070690033, 0.4162293187961406, -0.2895187121121091, 0.21603519586517092, -0.04327487670752538, -0.5617351652289466, -0.11772680083477394, -0.10034051630320327, -0.2597773668479646, 0.11713977964540381, -0.033572732623043104, -0.040448966423203836, 0.3415350950181691, -1.0442786677635487E-4, -0.07948772321947771, -0.3364621041910857, -0.1389234192058651, -0.6895360220147779, -0.32924133340923245, -0.14278405239052852, -0.44641583186397904, -0.32938861956720616, 0.02410291562615493, 0.47365587253504704, 0.06462349600315058, -0.1468151388931197, -0.19727208040214844, 0.12283194125335833, -0.23075402951713553, -0.005125042903760677, -0.3589596580314384, -0.08662719880224944, -0.239129656127595, -0.09083611983434739, -0.4623095647769192, -0.48297428693826566, 0.03050621772590661, 0.03119519537619911, 0.11838582459479084, 0.3317211882753036, 0.4190763459173761, -0.09090284626393125, 0.1359037255287214, 0.14726771863114008, 0.20994156179635914, -0.48653887391744527, -0.1861784238087676, 0.7146444048903925, -0.24446785963316078, -0.07205953731180692, -0.41710136091719346, -0.5319443484363398, -0.2912438547726699, -0.43872507170742847, 0.029129214759377818, 0.3489377032796216, 0.3822621669085656, -0.35640477633571493, -0.3118665353145725, 0.31708589780467605, -0.6818408195711317, -0.06057182284389134, 0.11319320650869129, 0.2647676513511504, -0.23419262371018176, -0.07598232756138609, 0.010611311594137795, -0.062123895577423704, 0.14955469805881924, -0.5296045141561754, -0.1914729769765576, 0.037462699000296605, 0.1215291279446836, -0.33689863329564107, 0.19308988282300227, -0.617942707717865, 0.10428084337305019, -0.13121694263612702, 0.2594820511959293, -0.33647734738451474, 0.24644786172736774, -0.1604483819127223, 0.317823521029916, -0.2160805480316556, -0.09961943468160926, -0.2861459446583903, -0.14911426271809133, 0.0013860702088813394, -0.09924660657985512, -0.02211389096587063, -0.24302435878042417, -0.5814115277056549, -0.08036861953391215, -0.3726805080484665, -0.1709542526533994, -0.07341718013431595, 0.18472461373674087, 0.40409690050362806, -0.08109146610621037, 0.021556282655677106, -0.1409514880102527, -0.4233266244092628, -0.851492594880869, -0.08962388378221657, 0.24146880349849578, 0.22104494898703705, 0.12111589192758562, -0.3214780988052674, -0.09419772823298035, -0.7302797886218014, -0.1808197892811151, -0.4369649503602152, 0.13229540089903133, -0.2074928901927307, 0.3266595743522149, -0.3844049668934886, 0.2923764663891229, -0.07206447673057514, -0.28165635660774924, 0.15410439738700657, 0.17568677274183125, 0.07085265364288944, 0.19401041011215248, 0.6784481714613531, 0.6072981526744754, 0.025126374410377666, -0.41209869650336933, -0.29368694053960104, -0.7496804115757806, -0.3097364967342206, -0.34332711070546346, -0.3465964364272808, -0.12004457082899016, -0.07092713751408444, -0.06616657002677634, 0.46254206309656326, 0.25047466254684264, 0.3605477172258586, 0.2087999205667243, 0.3327495658927364, 0.05442708707905358, 0.08792856739416799, -0.4687647635565845, -0.18349012180518076, -0.5054281476516689, -0.2955669171890907, -0.6610947787007639, -0.6653403614129251, -0.3851567405065477, -0.11616535319966911, -0.20746527766288364, 0.4102023330174464, 0.2720290548255839, 0.031286120125701665, 0.5194884512847973, 0.08774280982159627, 0.43146126027182485, -0.16531751884961518, 0.04592580302820254, -0.05492375645809556, 0.5625101716926993, 0.011170014186305732, 0.36115162194624345, -0.22160276723186048, -0.12076133533150339, 0.0313520596403203, -0.33382749697165576, 0.276824900642627, -0.04276516028584842, 0.8449487815681994, 0.12410132095287921, 0.188438341486355, 0.19988494708045007, 0.19062806119532416, 0.1649681830942839, 0.22611397104138484, 0.43151764541995785, 0.17270807032582758, 0.6175503334631002, 0.3295228952682013, 0.026091609104744697, -0.147522111902949, -0.24628034846953434, -0.0863746502901412, -0.19699135117231797, 0.48891930185719984, 0.066140933681547, -0.040152680412739894, 0.34491850718763306, 0.7186942852594237, -0.01692356284064108, 0.39661262821446974, 0.6516417398612484, 0.5577994476051533, 0.9561635986905346, 0.8290477158282257, 0.30633400180342074, 0.06731550370552393, 0.18307793472872702, -0.34965575273241994, 0.34761111624384905, 0.15337576028952818, 0.28066224772729337, 0.09097932582304183, 0.5232877646500335, 0.3477945217411621, 0.48328846067481845, 0.26544973437839514, 0.24828876769507946, 0.5477604099313398, 0.33196813368294503, 0.5057523519964683, 0.34133748890016186, -0.1264479205893384, -0.06637250792170502, 0.4481836052834866, 0.2214215612080655, -0.3864277082439012, 0.18596315195332408, 0.07011683077908856, 0.4328474217454039, 0.19094149726333823, 0.08333407630711467, -0.14676832940662674, 0.13522235834664895, 0.482047779553734, -0.05939486282901374, -0.2762161440765877, 0.11907907836912854, -0.5763475812100645, -0.5255553776711206, -1.1629401813406968, -1.326686577097879, -0.18636651768593945, 0.3046124376268094, -0.19791749453533108, -0.1672133022878078, 0.1715073951780643, 0.09794345025659193, 0.25293892933100914, -0.11738984644613042, 0.19579411823032786, 0.009637099638140668, 0.0015205955337804684, -0.5321223122749086, -0.3210401629093743, 0.12359884925925012, 0.7802012904261201, 0.27036730531667813, -1.0633042331474494, -0.39814542853442547, -0.3167713188728853, -0.36223785074552445, 0.14031804080597626, 0.36567315504251136, 0.34743859008422384, 0.0484754279278046, -0.0453002047537532, 0.15643750984099192, 0.13802871091827967, 0.38031715866264965, 0.49450096615552486, 0.2479224092569908, 0.3457942899424448, 0.11626113924348107, -0.2139598620480488, -0.28666274400999486, -0.1370931888916429, -0.5509734545493971, -0.6956037494823603, -0.05674926733777446, -0.2816046539310409, 0.1649287808846503, 0.4960848446410711, 0.5688584837534596, 0.233379956474111, 0.7895682389099188, 0.7724047515826559, 1.1755251472321044, 1.1119486252938626, 1.2158680140965112, -0.16806398955784052, -0.19824094330232944, -0.5129088718426149, 0.2024503776108518, -0.22855142790939248, -0.12070574872600673, 0.3320682733361155, 0.003584696772396275, 0.3603737048826263, -0.051692141285638996, 0.38790060267491433, 0.5918858895953277, 0.6956672799626429, 0.8254480927258764, 1.5059151793051937, 1.1918031589285552, -0.05689685109080021, 0.012074589352688942, 0.19698723505077562, -0.012893557193125849, -0.1394437870401375, -0.03490557888018731, 0.7217583338451405, -0.06091512653018688, -0.13449818046539105, 0.4984354436551353, 0.01453225387737271, 0.16613718680887732, 0.1389060575015406, 0.022639871657144817, 1.375928311876561, 0.8220985014699713, -0.325871431406181, -0.3674401705129473, 0.2585541507043109, -0.3780759534202968, -0.1125002811148784, -0.05633019919527577, 0.32840923473516825, -0.056743003938469254, 0.40486390883515727, 0.5913491862158621, 0.004794746529836995, 0.17471368151155828, -0.2600162167933355, -0.45931844481067774, 0.10876705768337855, 0.2600118675020549, -0.36101538594904703, 0.26318183430614284, -0.13478439325444763, -0.25924032096736205, -0.005583632332796391, -0.3672933509164011, 0.3146116877359783, -0.13535952151737493, -0.3147216892335686, 0.12453446463329187, -0.35070371419279567, -0.5140483043458232, -0.17508539823855324, -0.6523557682805218, -0.39763738892701256, -0.6257568301937397, -0.2652259001833273, -0.4881010456452569, 0.030550763148012312, -0.07693876124976869, -0.542084037772656, -0.19459694266891506, 0.10343310857333442, 0.07812516309651048, 0.18877325194043257, 0.047759469147307845, -0.5713749383581269, -0.3187277392561459, 0.14708206552192774, -0.10457081491668914, 0.008938977781745207, -0.7377556891460002, 0.048414743748509396, -0.051526249987489975, -0.28511587865354476, -0.14535089012038838, -0.003943578137342706, -0.23138797683568832, 0.4749455828791946, 0.2513311427684581, -0.6934669760121108, 0.04485996412463519, -0.9013114279706099, -0.4505284234565771, -0.01633009336947749, 0.5428865427033366, -0.2074863156663382, -0.6014243259476731, -0.2882155821192576, -0.3483855358040749, -0.2708532017804109, -0.05179523477099323, -0.4677772884555485, -0.13452741289869033, -0.5489532271857651, -0.2804050377117231, -0.5146491558243521, -0.20470901882619863, -0.42590640809327635, -0.2347682941707643, -0.6399510782165431, -0.1447866480227197, -0.39698834865619537, -0.732527279903191, -0.017896672366427727, 0.08740340562006084, 0.37144120366167077, -0.5260318077874596, -0.17358125143898942, 0.20873882092716126, 0.04456978847431995, -0.6688603102224473, -0.6220212381507398, -0.238487399047086, -0.4777531628471115, -0.7320355296638772, -0.1789060822198719, -0.5346712441197069, -0.3074111345096513, -0.3661838451147108, -0.4538251115487968, 0.05835593967028637, -0.10413302794173895, 0.029777510773171083, -0.043851263130660616, -0.12057024641258639, -0.4244958171341546, 0.0063079172383359895, -0.21045158499745786, -0.1397073532990463, -0.28317616904985465, 0.18826731665847182, 0.33547729689584843, 0.23654234378009759, -0.2903042713673898, -0.48061797959524577, -0.15171205316556435, -0.02101700702315849, -0.1307692651571251, 0.2813339992556303, 0.05289373565162978, -0.02240133815127715, -0.20586936904088193, 0.10838600152546034, 0.5280192987478128, -0.04544612466189225, 0.26958550695067285, -0.13163082175488444, 0.02648655746464665, -0.06256718807446955, 0.2319435724842806, -0.31329065818836366, -0.024042501506280886, 0.15164031284579677, 0.21463320970084074, -0.26292265969249645, -0.04234269923400619, -0.09145098080695954, 0.2696216475018169, 0.6192977911636864, -0.20870438844023, 0.2710597406556801, 0.36556685423666213, -0.23703537879222952, 0.16321836393916378, 0.41552073645819143, 0.5974695364046427, -0.0026624607809595784, 0.3176493267479273, 0.15541592142840566, 0.1312195907526894, 0.10283914354415052, -0.05580665233844571, -0.08992903072592595, 0.0740935803583298, 0.1433096602884962, -0.18153100566042663, -0.24388858467632107, 0.38309990878242334, 0.03388720217996244, -0.07267619433020193, -0.28698848262741294, 0.2761274514602427, -0.18537267310329789, 0.4404378017710074, 0.16085857368477416, 0.25251125363710664, -0.004051609114946659, -0.06749254808679149, 0.014349383150921866, 0.14355015217910191, 0.48611888755183746, -0.3229046069443501, -0.18272474245961962, 0.09454135310055309, -0.030533645093886782, 0.06399485110858687, -0.25811754388779967, 0.07276922807407302, 0.10631963353132529, 0.17445850150096218, -0.5161853865612293, -0.10265081347182695, -0.037420898604780865, 0.23423489319163088, 0.33293072515715355, -0.061317008379588124, 0.30311773637223177, 0.3170207962873453, -0.33805139111978133, -0.06936473600861398, 0.3071502483130337, -0.17752817012447422, 0.1928341798299623, -0.48696467292200757, -0.44194661285469433, -0.024566545906407063, -0.3054149986313903, -0.19789768770670405, -0.2680337110158219, -0.017273079868644906, -0.38379901037078235, -0.08213554687216602, 0.16907607916979667, -0.1034505169520911, -0.21743623875686297, -0.5510792622137528, -0.3499688279259536, -0.2816034423572421, 0.5423356021993454, -0.16472677410536427, -0.35348674076504993, -0.5224779522788123, -0.49831844218606575, 0.03510654108345753, -0.0752483245448736, -0.2408505061650693, -0.32352774477394247, 0.2047639250868471, -0.26353294499455004, 0.15771228639310345, 0.5990704302151377, 0.26975587608900753, 0.2238455060951321, -0.4890309984194454, 0.11255672810759726, -0.11174835279875814, -0.14294992832673914, 0.32946169732420616, -0.382094223658426, -0.5105386978515899, -0.11654733866362457, -0.36737083412740695, -0.4143101523914206, -0.24692017560319549, -0.3921833900981719, 2.0713244724792054E-4, 0.41477780405705694, 0.6818733055759785, 0.22239551935433105, -0.29635993639286395, -0.029478321777556344, -0.5608611848414825, -0.4727107017271697, 0.34456296713018497, -0.139991194348007, 0.12164158000243422, -0.8037457286216041, 0.16137650276088905, -0.04959956242972399, -0.16799678417032432, -0.2706575488219752, -0.20437182909927082, -0.1550149705549955, -0.10361231415578692, -0.013931384335660215, -0.03257763124666806, 0.14990234159022925, -0.3504155634305965, -0.46006300675137235, -0.09462930079265888, 0.42991911963993196, 0.30390384385230557, 0.2107321501839154, 0.029722180273769907, -0.27889859719090854, -0.46879239204740986, 0.14184728107549133, 0.02380902268455239, -0.1123318230107829, -0.2087590600060645, 0.29985258774209017, 0.38643135741465656, 0.08971684498240488, -0.2118437113103124, -0.08174334539540531, -0.14920783428547899, -0.36228114410739576, 0.2816427655136566, -0.022792987427232753, 0.13374296854964593, -0.3845111065236997, 0.21190924288143498, 0.11341425145448134, -0.0684344143696484, 0.19184944934610726, -0.129159904217584, 0.08842151552583627, -0.15783239847853328, 0.02408639971968717, -0.12675834844913042, -0.0018073052275601603, -0.661634436190906, -0.3401911174821015, -0.3835223511027449, 0.33812099532788703, 0.041991038764805505, -0.1995714693066592, -0.5421621946076507, -0.299279268951144, -0.2365992659081595, 0.02171871185961596, 0.11943623124076114, 0.32236976968469017, 0.165774407561497, 0.5240796695128409, 0.09513819443749298, -0.18873928609155832, -0.5811676789379506, -0.9107578454461328, -0.4956850017337695, -0.20492026988373213, 0.23015114072306325, -0.2972321404731462, 0.0177485316769124, -0.1647109614868467, -0.07733434180246108, -0.46715976341323406, -0.21733305869096461, -0.4362780483752788, 0.26928744085182327, -0.128734704114941, 0.03007271540961175, -0.18359288614051003, -0.28674236804468056, -0.29355256983719374, -0.5826182619087519, -0.3986381500528888, 0.281118737079878, 0.17057639161465085, -0.00872345469588308, 0.24709726147281613, 0.40163768975720154, -0.04915503208999532, 0.1132328243153102, 0.2178735601583865, -0.450364025272301, -0.08405741008667961, -0.31355418190587075, 0.1858978418420982, -0.42529980032835907, -0.38840918169510924, -0.3096101766158302, -0.9363843672705888, -0.4184476212627664, 0.3637490235238352, 0.5918153403342982, 0.1529129837407056, -0.022641973510292547, -0.17529868206709484, 0.39902257181815937, 0.446821371589746, 0.017043085226937003, 0.13093227775824443, -0.24139541151836968, 0.15795462748503275, -0.4180778475068454, -0.3462866470328008, -0.23731859930356372, -0.595192765230344, -0.2112335143425341, -0.11522361766530577, 0.378574611059213, -0.28654170145997954, 0.13423107264699366, -0.17229349324969623, -0.3939923587213282, -0.1764341448372753, -0.34187088640556984, -0.03239274530382494, -0.25993429895248416, -0.295947485007508, -0.2646315332265862, -0.59201648265172, -0.09289842519847932, -0.1552608885849592, -0.01024264879388564, -0.3509787043257862, -0.2892571157013894, -0.3784968693572291, 0.6188443725381708, 0.2837885715335773, 0.36075848066122723, 0.3246872215028953, 0.06749409054570281, 0.3637309133864015, -0.15988374264916325, -0.2357528511046043, -0.05229130342880012, 0.0218620233945909, 0.0530032097078316, -0.1555663505316885, -0.1020523331393938, -0.7084555066999401, -0.3030645360737424, -0.5133965515290114, -0.38550724341869264, -0.1618163438313251, 0.19857308559542494, 0.45964657354596866, 0.5388111791158245, 0.5639616604195081, 0.23342937999096602, 0.48420874794105745, 0.18285219387138543, -0.14805580299862822, 0.2911038012733912, 0.12096083301658278, -0.5923678664055307, -0.2847488150134217, -0.19749991561547664, 0.199421465198119, -0.6926331249805353, -0.5756499699714, 0.028058537872820553, -0.3550456237689813, 0.39885797148523755, 0.5264943569396336, 0.6707040691573357, 0.5096668253901486, -0.12009129891373506, -0.1454961491279933, -0.441491213103089, -0.2750720769569622, -0.33412528210840964, 0.07067303212196996, 0.1678150018963032, -0.43973901638287377, 0.0673131678305918, -0.1270953973940151, -0.061465797432552906, 0.16924115786009628, -0.22281036788799216, -0.414248316727139, -0.4250789709629279, -0.5725378255016667, -0.30962278777782715, 0.017843071031612114, -0.1883063310134913, -0.009902349999902188, -0.25005526358770047, -0.0498146171453492, -0.2986524867286637, -0.01594281990048982, 0.06315775872360617, -0.3048168151640615, 0.048396712520300145, -0.9813741982007244, -0.1013245138912256, -0.5306115813415178, 0.07319881736992943, 0.19946494476374815, -0.274164898874057, 0.46196094254849457, 0.0785179981701067, 0.2717042339272706, -0.09170134772962064, 0.00529434439306854, 0.10486497611321363, 0.28633446144590846, 0.22206540216734705, -0.062335125983788826, -0.12157196187639448, -0.03315011048031157, 0.31398537267716503, -0.18048193829412282, 0.4026346402776482, 0.1633756547234166, -0.10633828729404392, 0.47694799454545816, 0.2551884769935108, 0.10826048370860615, -0.05024581994265561, 0.23229968368318618, -0.1283844067146275, 0.14768932552685402, 0.22003328814612247, 0.10236402157389103, 0.19654862987223895, 0.4423869718585781, 0.5906645464686051, 0.33159529566167456, 0.3654817174585704, -0.15584927887770805, 0.1608474635252425, 0.3771170726486692, 0.18487046573496713, 0.083472240064503, -0.1369092157508637, 0.3565463125748206, 0.4135475058844602, 0.11827059635274742, 0.544480785585412, 0.8193899043134867, 0.45174153939379846, 0.7347167572318675, 0.5306049815994072, 0.3735527770198917, 0.18175245503882653, 0.5371160533356818, 0.16113296907584773, -0.07132645711020891, 0.3543433523125049, 0.17902345831866454, 0.4836237640774862, 0.4220337484119238, 0.1671341836732905, 0.008723117426517319, -0.046722069803834726, 0.47481596879387655, 0.3535162536734666, 0.5610399342221708, 0.6031164805882956, 0.408827303131601, 0.36734942983026897, -0.025668116870646303, 0.14177057027416087, 0.1823323619253635, -0.024462590637022764, 0.4209391405506092, -0.22034732105054003, -0.011519702267077951, -0.1284116414994905, -0.10780214956566948, 0.1572144593503082, 0.22412988566623723, 0.23600919586007157, 0.26051824112859595, 0.5835965844255675, 0.6219787463379757, 0.28576644065305185, -0.5397733679004453, -0.4522704803883643, -0.14700243594117682, 0.27038221123840955, -0.09841558931102286, 0.1223260149049742, 0.38901428891212453, 0.531978021773242, 0.15101005775961185, 0.6690061428325011, 0.14928854181551812, 0.3203055375618609, 0.034079199751936705, 0.28185004748843256, 0.52172367086989, -0.03208309395609666, -0.2515988125360022, -0.14412332597015176, 5.645234919045795E-5, 0.1193175362988995, -0.3466328994996165, 0.13288133984900102, 0.19446244245489736, 0.5428538617600027, 0.17493351944877486, 1.0319865525959831E-4, 0.05757814882083916, -3.2724620571138917E-4, 0.3498602096134702, 0.841000858263958, 0.5252610116699318, -0.3143410764857442, -0.20704967331355467, -0.07828499746818113, 0.5460486903813937, 0.012772943688978895, 0.46571765063744597, 0.6330535697514275, 0.0439984415811888, 0.09084054387425898, 0.21129051383633826, 0.13266156992280403, 0.055449449376629725, 0.4983555479966267, -0.06623934820454445, 0.05642601534498043, 0.49590867000672273, -0.1515978190808022, -0.035055553590728775, 0.08703123730904996, 0.1172970293535455, -0.09544405938841229, -0.3457165574045209, -0.382392324797602, -0.014143160008062573, 0.1664386600494311, 0.8742551685148171, 0.7448989441338911, 0.8329350136985683, 0.21106271583180006, 0.08643832445525278, 0.13865251713859345, 0.20925405483290827, 0.1955691004374212, -0.14217264683556155, -0.039013546937000064, 0.3821888591513721, 0.17180797981008988, 0.39923812330190767, 0.06296694562580486, 0.28138972469948276, -0.043489250545326485, 0.35506140082887044, 0.33228246199138817, 0.4269185240992453, 0.3132417709852695, -0.26750516072033104, -0.2940971640577291, -0.08357722974350111, -0.1702692232305619, -0.5545567958516463, -0.24068273205698393, 0.48130489505441754, 0.14584468661420796, 0.21529929891906388, 0.21862140784252976, 0.0108637153493791, -0.10833885735377172, -0.5648455640413609, -0.4542904901318735, -0.8518172651758547, 0.07794026117704125, -0.41014480255368574, 0.11438341323405504, -0.11611630469600824, -0.0060173381942404775, -0.21915720424616014, -0.6749666681601618, 0.22911829305560197, -0.2305179891203465, -0.6052263843337865, -1.01762464377748, -0.5095868758050002, -0.5669648228723737, -1.3849488216606087, -0.6611257554154815, -0.563556848915411, -0.14357437919037985, -0.24290472172410668, 0.0024256587901823824, -0.06344399681655062, 0.020432363590833617, -0.0660813258243613, -0.5224057971801861, -0.41210471787447356, -0.5021061074546518, -0.20747921891583093, -0.6584639019743342, -0.20683588998893915, 0.005567206400469002, -0.3910096283060943, -0.6699148474728513, -0.5053379821420592, -0.9624706409165924, -1.0618042403055181, -0.5946083552995243, -0.4427706245004436, 0.10718121867189985, -0.003442796269596674, -0.9104341458810021, -0.45923930412605657, -0.14890162723608877, 0.08963297302216554, -0.5508015064969827, -0.5820806609870497, 0.19220208533588418, -0.21421787167480727, -0.09535624348151502, -0.18891947116069518, -0.38477753677878085, -0.02235499187943051, -0.1746115867338163, -0.14817121611217227, -0.1885257223379692, -0.8348828247723667, -1.3546663930507497, -0.645471719990388, -0.7861564480595881, -1.1589857488344022, -0.7895827873186462, -0.43327812833401164, -0.29907448923106417, -0.6538503643075626, -0.21663187090218797, -0.40019674380355774, -0.4213334132650647, -0.8412082638933109, -0.6606408585078113, -0.18643991749459612, -0.5467294773430609, -0.884639623464147, -0.7874981424059849, -0.7522306794509077, 0.12222456500161874, -0.21713424794767366, -0.524788633683615, -0.10393697843197212, -0.42809783978376253, -0.11323473442437995, -0.4144005164256779, -0.34189634774473426, 0.07475851059454344, -0.3190507770789561, -0.1697054673987806, 0.4036403710651144, 0.577091137525799, 0.28076589504797594, -1.0429064884110075, -0.4421049927199135, -0.28539480853771876, -0.5127948421177533, -0.328414292028138, -0.339847393981651, -0.25235499282366186, -0.05836560162628541, -0.39721395377863894, -0.1527815659201685, -0.29372499953870135, -0.03517419038359686, 0.014705304892521585, -0.5562248862074101, -0.4425944392764055, -0.39440302851118936, -0.10691932806501821, -0.2315147561994063, -0.39542317543421507, -1.091262428884249, -0.5700170381426641, 0.04790444786413471, 0.40064209611379553, 0.250879752614757, -0.01654250632048651, 0.10417209169797996, 0.3343264662424124, 0.0728675164251796, 0.11910621276506858, 0.014306557561783112, -0.5339694789105263, -0.3096908484409919, 0.06847417628100903, 0.3969296356805386, 0.1686190451101636, 0.24342408499068421, 0.07880863190583773, 0.041630675541259966, 0.21865129683238235, -0.19339317128934166, 0.34323520737311725, 0.7719034696353106, -0.013158862030563394, -0.24984260377928377, -0.011033270384706098, 0.4957430611876671, 0.06722049813797704, 0.06637425784820665, 0.20595809514710975, 0.32726139749261834, -0.2384842391072419, 0.12796851685637994, -0.039663178191853034, -0.13057924842760396, -0.0776894574095761, 0.4510981532741199, -0.5264900589771366, -0.4486992619014194, 0.10061170034100177, 0.03822760680466478, -0.2909304595244382, 0.23845228865656262, 0.3190985135349653, 0.6042279549729213, 0.36776280156404273, 0.26878735232750195, -0.1165733604748216, 0.23361860680623278, 0.2019769433384098, -0.471755869993908, 0.33598853359316766, -0.2370436065288832, -0.130257513352203, -0.494427076646448, 0.02470272379221624, 0.11248602775370481, -0.21446252083422576, -0.5598859024426057, 0.7192640967295315, 0.26170473021448143, 0.3721325892947242, 0.4807713715932906, -0.25691088487102265, -0.2657346343184821, -0.13998360297196397, 0.46943324271685705, 0.07964674415042583, 0.10620297805450625, 0.32318000250740647, -0.6591522237250214, 0.41212287454077756, -0.2637542009654014, 0.2515309916192361, -0.010240983242408885, 0.2931992189698967, -0.22200706941857695, 0.6199957090514652, 0.272475421257035, 0.007910367576937074, -0.34941169926593096, -0.03851733430359583, 0.6915003087604693, 0.12076351554514196, 0.19510311707363026, -0.27341703457849237, -0.11945411130150724, -0.0044940126018321305, -0.15763779430904865, 0.06319316007893223, 0.20551956756339745, 0.4463203867727072, -0.03975025173306077, 0.11928673426336639, 0.2687309048430499, 0.11711238243458233, -0.16594937004962806, 0.24746539430711384, 0.13010843658919438, 0.4751082960187676, -0.2800987930689408, -0.7547693862095926, 0.14076218722464565, -0.06989154805113212, 0.165623805816676, 0.152751744250947, -0.0482565578243716, 0.06044356952228279, -0.19448637231179186, 0.08305029767404681, 1.346232968820691, 0.40384866541809056, -0.5168745771814012, -0.20694753391383475, 0.026715821508780546, 0.3728455166226019, 0.16355438648390694, 0.6027335841950165, 0.6496732304576278, -0.010773470830131414, -0.42587324972975266, 0.6496779716328465, 0.7052067991023327, -0.03590539418375614, -0.08053250247852267, 0.20279970186201687, 0.34837983116696236, 0.6738975917646308, 0.45358996238887084, 0.015005427093252699, -0.2572608836638855, 0.4909740466394298, 0.16028557987767542, 0.9379845966039336, 0.8334516162748935, 0.5668143807597332, 0.272408099624809, 0.14836492977563173, 0.5259426929901879, 0.1714455332379309, -0.025977859816086784, -0.06027084080059995, -0.508488236094203, 0.42686143548552385, 0.5318287093540282, 0.5507053048559829, -0.28488887868021734, 0.2580423312916549, 0.09993675953032112, 0.4236085714743063, 0.37161699745129756, 0.562398227815529, 0.2562638996847287, 0.42689614542803905, -0.4413655862211946, -0.40155827854301046, 0.14191745879922754, 0.07420205559790448, 0.3087642643903762, 0.7295773810778383, 0.3909663611684546, 0.4957438938917074, -0.1345345558575109, 0.14621727672938592, -0.20407670887333992, -0.2937246711288058, 0.11743834207430445, -0.05195140161017193, 0.19839493393652022, 0.017185752630254302, 0.45362750316035966, -0.09626600246042724, 0.26788525177234707, 0.20050981833416778, -0.12050784551204283, 0.07764944455878457, -0.6304822255316801, -0.315075721276513, 0.1768822093142353, -0.10667158806069216, -0.25295808962871363, 0.14949933839999438, -0.3191310238629668, 0.07849015715699116, -0.27096936715855025, -0.1287568077060305, -0.18411689258601996, 0.39413024474932273, -0.21302104035163746, -0.07001692798662246, -0.2495985448240675, -0.9828875027215876, -0.16252062528751218, 0.23540161885762068, 0.42569398650714213, -0.16523522531033197, 0.40772279983154686, -0.01000502190515128, 0.27218281636876784, -0.05554209456966609, -0.006856253163042221, -0.02060308144714223, 0.09057133487532774, -0.0868048090201653, 0.19059148788594274, -0.47474918020057055, -0.5092449419155732, -0.4616507260118835, -0.508571975242416, -0.6861885738725868, -0.2637714495616111, 0.3165338736521792, -0.1873780755390236, 0.7684959126955827, 0.7047238194722214, 0.3669527669851164, 0.2631241154352466, 0.550915778582185, 0.2281049032337591, 0.6313912157827104, 0.9193358338789974, -0.9140585679746778, -0.6027024225640126, 0.3617213658731377, 0.1060861536582276, -0.5676788733626305, -0.3658881950132275, -0.7775526455233676, 0.023152617311367054, 0.25479620433771566, -0.04178167986508062, -0.029079654549399182, 0.376186016268038, -0.25896754612425466, -0.16082761772592716, -0.7603223586111659, -0.05410655429409746, 0.04264431503491798, 0.1374596013423506, 0.6685889070074796, 0.13218197464241166, 0.01894169549347055, 0.270632820310445, -0.19697789869778223, -0.18754728435599685, -0.20454918838947217, -0.37171591177523466, 0.40670522647305973, -0.13658876926984376, 0.08478731968099289, -0.39962107811446307, -0.09591777498514112, -0.38814401372938, -0.13247306427019323, 1.0574539102615463, 1.0762718207870285, 0.435524414303636, 0.8942600288340036, -0.22575755293189465, -0.13532734228078178, -0.6062252591493674, -0.875783328560933, -1.0550642352270394, -0.45094552768036755, -0.679225777394786, -0.7627113423616955, -0.527520749117878, -0.09512874703222528, -0.4207212588924767, 0.6879181343205468, 1.0853584613079141, 1.1678064593555262, 0.41265798786344066, 0.7705302534152317, 0.23648930934131868, -0.0019000126896048086, -0.1942518252841727, -0.433595943488948, -0.4234884715739897, -0.36691331736441996, -0.46889635625369347, -0.24760914714537471, -0.23262232729803695, -0.09218867506464369, 0.10539331554453896, 0.5867372149209547, 0.926384367585839, 0.38798858610525183, 0.8442273465327663, 0.6589960923404147, 0.5591883657040795, -0.06191361055769081, -0.14857552887706518, -0.11988494105856448, -0.38858319455712065, -0.5791311796678836, -0.5078668450182489, -0.3177140714481074, 0.3375255736480959, -0.06654329491973072, -0.1491974661885202, 0.41739317166643936, 0.8262382112022872, 0.09394212217932585, 0.46449286987264765, 0.29519351113018655, 0.40842141543234367, 0.4869434409144723, 0.3130688275129135, -0.48686630327178343, -0.6108935835080525, -0.325552594291832, 0.49328845823456974, 0.12350066109651468, 0.1326685363467124, 0.485298517683104, 0.11466955703923755, 0.1458224770072667, 0.22887256040085827, 0.04694585502895089, 0.1544013347050633, 0.2027890073112272, 0.015982880083969808, -0.29729168344104995, -0.021582058325469684, 0.10532442069308778, 0.12544375393080504, 0.013320526905463315, 0.5063861645954636, -0.28167843258971675, -0.02414215041894535, 0.23904933676478032, 0.00463304076614483, -0.17750324488277422, 0.8387717581878795, 0.41627710607535834, 0.19327284709102527, 0.5385313207820802, 0.03982874717067834, -0.19716571736688776, 0.12450030799638856, -0.10898864274189715, 0.0023785353906218497, -0.0010857754272826986, -0.6861811640278006, -0.49214638945644784, -0.11178439931466977, -0.0643901124937086, -0.13075688453176224, 0.20380648498719733, 0.7585412122087157, 0.3974298131702155, 0.19860069121382726, -0.13924342912911758, -0.37377849665310897, -0.7117557334612233, -0.4837347856103615, 0.1308949694712701, 0.1150485738619773, 0.3460232056096523, -0.08999657446725864, 0.040327993792412364, 0.09097681366555298, -0.12885854093335217, 0.15712789889086695, 0.5388202407283421, 0.9375188026977901, 0.44160827453371393, 0.0862990044231587, -0.39810350727654403, -0.6715185230750121, -0.17363820749796047, 0.23849717881348836, 0.21988205316047096, 0.6435923160210911, 0.329825032101532, 0.3295829313357826, 0.3020098742666292, 0.04107229475060233, 0.54912936058849, 0.2390135940954354, 0.27280233833442813, -0.14054873161148568, -0.1898963104740404, -0.03331268359671826, 0.099566272828716, -0.3428232091270092, -0.31178650722534296, -0.08458961936454451, 0.28584920040793627, 0.4043705535445764, 0.6154047120418421, 0.7567483121884204, 0.168962019401747, 0.0653258470448807, 0.4095449751949123, -0.21586924223495815, 0.3859688906177362, 0.12777222935888582, 0.05581851781049691, 0.42300757126947097, 0.43818139019125624, -0.1179587637698908, -0.1946075558481186, -0.024060991233940197, -0.2689114447074704, -0.10550184275752202, 0.5784167933826146, -0.012105754428933349, 0.12276345800363947, -0.3707256589219605, 0.4702768136215204, -0.36949453698696205, -0.06605791848779537, 0.05547140295047377, -0.709872827945598, -0.11682864656334908, -0.16537878835430805, -0.41549468993542926, -0.43011123995883693, -0.773518234173017, -0.4231294981068144, -0.3344469578850669, 0.05060918845023691, -0.044722752857370665, -0.22422788064825325, 0.010901117354718303, -0.3430511040663706, -0.21333965021198048, 0.38136423134842784, 0.016636087552479046, 0.05663253848479889, 0.4819786217663063, 0.4308264432176638, -0.2545364764940037, 0.32491779351760164, -0.44619291970568215, 0.07299644320691193, -0.1176634757303198, -0.4224364093753103, -0.25495590899093024, -0.3620645409107233, -0.5193331377597573, -0.153328864375327, -0.07257929101703768, -0.3490324666334454, -0.5341677323225869, -0.42778170751244576, -0.1248762411998791, 0.19074779717328066, -0.09800642589237081, 0.28586668373583973, -0.4299929374583751, 0.057285821952701044, 0.3237589824695499, 0.38814930717773044, 0.002453250357440105, 0.12767651194137028, 0.055658624881860005, -0.2502059100510694, -0.6121388188813208, 0.8852307229054104, 0.7122090711948055, 0.05954140519552876, 0.6024141328361995, 0.14395970748254452, 0.14072061920532494, 0.44734342338579786, 0.1885447149896141, 0.16891373578637534, 0.23846456556058418, -0.1927229726640323, 0.026457983993986873, 0.36146099858077496, 0.35730835315990045, -0.13984350026059966, -0.7569678159549351, 0.41046467562804023, -0.07834216604420473, 0.2822342685968221, -0.29096823483682427, 0.21113607579540403, 0.4089161393656817, 0.7778128531979984, -0.2039235718301596, 0.32263395101175035, -0.17625860849463823, -0.06810015392323512, 0.09253806082454423, 0.13904667902044907, -0.04041970225802865, 0.2675853535011948, -0.29493298381189653, 0.2761514588154871, -0.04130878850650073, -0.35392368816499326, -0.16978943770948776, 0.3501807407937267, 0.18291694489417604, 0.41880206095921724, 0.20615355660487328, 0.705574561818949, 0.2668705542355165, 0.3263796596737477, -0.030412778434385297, -0.11078839498691408, -0.7872707918316728, -0.3977715981839533, -0.3634200271207235, 0.04308972266225894, 0.3756409470319992, -0.05710708245118275, 0.09977591368335822, -0.009023697119963052, 0.5566935602362622, 0.6718094919566617, -0.4069766279480281, -0.3824655364504502, 0.009039819229068212, -0.3066350558727068, 0.14410483585110892, -0.17682881900917302, 0.29339181182137397, -0.20311289642972544, 0.4978870374799541, -0.17248911638685382, -0.2888574117422023, -0.05276830264382412, -0.4396397812175125, 0.09490198178077941, 0.2276116744494335, 0.14867692437915908, -0.47428668395743323, -0.6333650525505148, -0.5321095028710271, 0.09368387858313665, -0.07643537052648286, -0.40761709793908435, 0.045735311673025754, -0.1694364796875661, -0.13815808452530118, -0.06745920319891095, -0.13447137915525742, -0.36852579753235903, -0.2946434162086649, -0.5449929242805932, -0.42699541343147407, -0.638386623570921, -0.3696948764186022, -0.45704920576342123, -0.13691541003997412, 0.15775928918096627, -0.22446022043483735, -0.5012800091221549, 0.39931232172916076, -0.10341456778474022, 0.3783333884132306, 0.014258112414509744, 0.6387981211443294, -0.3150823858738516, -0.3193261392559905, -0.9535556590572851, -0.6888427524005788, -0.6878637244874649, -0.2402548665377268, -0.4607050815261422, -0.1623713232345417, 0.12498637525076507, -0.7430965765547356, -0.17449504904504987, 0.006441689554299066, 0.5843122299486628, 0.007365187890705209, 0.2848981008540487, 0.41966310896547676, -0.20018578249251812, -0.33332272770944305, -0.24018840065835234, -0.9862103730150713, -1.0473456546283397, -0.8230132163689396, -0.8731751202891981, -0.6032358141767136, -0.38246095244172706, -0.8891798669342553, -0.8723376706645573, -0.3056592568319942, -0.03943512109091247, -0.41906127277426214, -0.09639978109292711, 0.37707804709995435, 0.06073379952146236, 0.6446756384190225, 0.021552138961214072, 0.07844387794420028, -0.5347611795568449, -0.71569282276117, 0.13413371054456885, -0.47031130761969114, -0.31798077841357086, -0.18912011332628365, -0.5251319562274017, 0.2023231226401973, 0.24767369351337748, 0.025149533752739418, 0.4300473446538708, 1.0131723655533107, 1.0063084064373913, -0.1884293580569444, 0.9282007959019476, 0.14361755655825928, -0.033984975829634376, -0.06865884353181989, 0.4446303656032133, 0.034251910717724675, 0.38243173750419174, -0.1390368566211866, -0.2889746523718827, 0.1923574112470096, -0.18626075823058935, 0.08356761852505552, 0.6132989528602951, 0.7016855897203632, 0.36296678493868473, 0.2892934470080123, 0.4021501844797183, 0.17141229943544845, -0.33263457404468205, -0.25471629546676783, -0.4749079270858327, -0.09913675903344478, -0.19579498360938524, -0.3871576586479274, -0.23910092926731058, -0.31618581447622274, 0.2260846972280463, 0.12593950086586178, -0.27486529004868704, 0.4481149856053166, 0.511634943913757, 0.8168842376155208, 0.5444168341546167, -0.20814241752204582, 0.05557428788212447, 0.5891020099969463, -0.3525180773252883, 0.2910663957808014, -0.5710055631034777, -0.4989513260692427, -0.04730471962532418, 0.09182908716668058, -0.2009778934468078, -0.3518695793043652, 0.5933969623821399, 0.2905237452656477, 0.4649847942712475, 0.6538308069904204, -0.14355885734519613, 0.1649678637082908, 1.0720303166260017, 0.31730340091418174, 0.2050083976134188, 0.244984304549117, 0.06920096777668895, -0.34882669156248114, 0.07487093870299778, -0.33778980689886684, 0.01307416042006764, -0.3651250080769498, 0.6032033779084174, -0.5978203745029179, 0.22013416829559565, 0.5042439178338386, 0.4683361061561895, 0.13619020312924027, 0.3910162399767388, 0.5273200292449602, 0.20337301524503348, 0.14566973049057513, 0.2644841594293802, 0.19761109915994238, -0.640926675766721, -0.30011802816845207, -0.7031312628316367, -0.0737016995833412, 0.13846812358760122, -0.34522390854196733, 0.7296519631758421, 0.4622779634414959, -0.4905339783089246, 0.23033512731163072, -0.06947418243253838, 0.15538785889161968, -0.045165826537177205, -0.11296023095076822, -0.22308087832149115, 0.06513848058314761, 0.358549449878361, 0.2914296521222798, 0.293007454179843, -0.017887383482047197, -0.33238193851049247, -0.04778830232485329, 0.2915082001391374, -0.46596881554615194, -0.18294831281717508, 0.4256762439030306, -0.31156933644752194, 0.12009705582865346, -0.6934112792464847, -0.5115952949432223, -0.07892427829011693, 0.35450491433773124, -0.06952450912542339, 0.3930458044471943, 0.05475512328558657, -0.3070946552831107, 0.6628502167534365, 0.5544722683292453, 0.962552882550018, 0.2505634842919528, 0.01280868032560582, 0.19168558452678175, 0.3869059553817552, 0.7485230025672274, 0.3940136982924988, 0.10616511387808192, 0.7200706114440728, 0.31846929551293157, 0.343501243844252, 0.828700332264775, 0.8063598769284522, 0.45368282160909684, 0.4729435433088556, 0.17860028608105927, -0.09322339854505449, -0.14655907671739907, -0.4289222440473455, 0.4287275917229855, -0.10447043693549116, 0.7734193254552317, 0.3851672201357562, 0.4576657991653196, 0.2841184769908458, 0.2879898891732784, -0.02644099945314111, -0.22314365169749226, -0.40097122675644886, -0.08430850780900784, -0.1783544912680315, -0.4766746826993761, 0.32582391772314956, -0.3378662439665181, 0.5619880275635528, -0.008087135991385377, 0.3404547725854446, 0.03982191501850926, 0.0017265436696070663, 0.5184724453068754, 0.24585764326762197, 0.2838981990166319, 0.1731954213320286, 0.4954791255859956, 0.24133697412811697, 0.34907664588269505, -0.48502263156829095, 0.2187104416311114, 0.2045048233869617, 0.26677673608900493, -0.16804242512979514, -0.34642920494968077, -0.013196889691940345, 0.14191231130553483, 0.11544625954686932, -0.33316878408272455, -0.24318216129031212, -0.44341691643782616, -0.37868065632257775, 0.16063729022181045, 0.561865644266674, 0.5984307440509675, 0.07977702771355398, 0.6903607386520142, 0.1474664421016298, -0.1952816227441092, -0.0028019170861471386, 0.026423102178750615, -0.09271950192951119, 0.45323134321400266, 0.19500752198921073, 0.1906904250752729, -0.039719923252340875, 0.09493992490101531, -0.03427012392821093, 0.2637613362404566, 0.9608205646083062, 0.37318719723429516, 0.39979805724465306, 0.3088319799401826, 0.01807105679892822, 0.11527142102969247, 0.14470127855421855, 0.38980784548539565, 0.21108288483429, -0.03291272244144289, 0.11788911945944977, -0.16675110083341427, -0.11576682021969531, -0.20374229529980997, -0.5220449071812122, -0.07261720844657076, 0.5066120070121779, -0.16675666602820244, 0.6070896542151211, 0.1673722613604428, 0.9459982841027668, -0.18803272074332833, -0.25386981344004067, -0.08975094309437492, 0.09805449592545969, -0.008976932876093573, 0.19318417730722381, -0.3295912441169377, -0.44511408349429055, -0.34301427393664724, -0.6108166477001193, 0.16292785567336812, -0.08694895564138164, 0.5695617979599108, 0.544688128776055, -0.518152711068885, 0.1294676206211845, 0.07945627879382447, -0.4316196933170567, -0.23009588906443762, 0.4515644208160262, -0.12245501031934118, -0.3760776434240007, -0.06369528155197775, -0.4463597685774092, -0.20527410970386045, -0.3049938860741336, -0.15431094079669483, 0.2904158314546783, 0.5968539463348278, 0.3367400859982447, -0.018208138740511148, -0.25230997924155235, -0.21100812431980137, 0.001553732059143812, -0.6901142930642338, 0.036853485537888676, -0.27704964841323815, -0.1758852294167806, -0.0878137996608617, -0.21299000717942385, -0.12942583891718917, -0.09898098881279141, -0.3471164051246993, -0.16340657458181035, 0.2539651868521728, -0.05525339692961033, -0.6413137770623154, -0.32823742307484954, 0.07609744957161732, -0.45452077174349503, -0.01010926335792717, -0.12310975189472646, -0.323544118339426, -0.3845632833236876, -0.37203830891995876, -0.8327143148400962, -0.13739319245915635, -0.07832951697832755, 0.3203871279788465, 0.24460386711833507, 0.44445600336524305, -0.3551389790091182, -1.2288624369455619, -0.600354680096822, -0.3158779334259947, -0.5228378713880508, -0.6130558893138577, -0.3346817675389587, -0.1847957252579669, -0.5440636038993242, -0.4828579369342127, 0.19119975060269817, 0.22232385182932066, -0.2790817210274417, 0.38279497603873497, 0.2969965209631757, 0.3152759719332839, 0.011817713818508768, -1.0415356955033899, -1.036906901113629, -1.010873098999864, 0.020426057635338637, -0.3914991641238232, -0.6500756523961189, -0.25679572966077135, -0.19605997106290304, -0.15232803893993044, 0.16545905174937997, 0.031794052122827994, -0.0321606086047072, 0.38735754037719833, 0.5900730558821959, 0.6594433510433012, -0.18159887416332993, -0.49262380152808666, -0.5546955853310216, -0.034464961257338694, -0.23308683349337406, 0.07321900092149752, -0.38478146303630784, -0.03353097572502308, -0.1470896368985086, 0.3814732567658827, -0.045871805831077306, -0.13620625077133125, -0.1457870313712411, 0.0601532771294806, 0.4899757882801586, 0.18753039858948492, -0.101642584727044, -0.3950851895462518, -0.0758118815202168, 0.0664246295687587, 0.21900310262089911, 0.0656809063030056, -0.41469951482209916, 0.34018362082718634, 0.5418913634426354, -0.366801551908484, -0.32627622618876495, -0.3044758247140923, -0.27096839569900594, -0.2817575491630669, 0.015265932252962964, 0.03960785049009039, 0.21744806170253983, 0.22523248683530067, -0.15949594772094133, -0.15287163856498526, 0.26267189052375345, -0.40839798607916405, 0.5200058534508769, 0.2910638062956066, -0.01918832245790221, 0.03520691155456885, 0.1797118906625292, 0.12938982753322217, 0.05098564047880195, -0.539388201096369, -0.3747964919820195, -0.16578860357123332, 0.7985732957924192, 0.4938153244118076, -0.003841209080246173, 0.7100224936445988, 0.38047469078830226, -0.16130587462375243, -0.02827357415151159, -0.08081111255838294, 0.18690360280334792, 0.11696431574195987, 0.14849178141936203, -0.03447767173572069, 0.29088409959697564, -0.21084550673659933, -0.12703456337938943, 0.10506129309842438, 

